0.87
0.9
0.43
0.41
0.02
0.52
0.75
0.19
0.11
0.35
-0.115016
-0.0750182
0.224982
0.424982
0.28
0.41
0.070146
0.740268
0.390168
0.83
0.13
0.61
0.8
0.38
0.74
0.79
0.22
0.39
0.45
0.22
0.81
0.32
0.17
0.95
0.25
0.37
0.930365
-0.562148
-0.667619
-0.953678
-1.07089
-0.969234
0.444668
0.323803
0.308258
0.0502001
0.760189
0.0898422
0.722372
0.0923563
0.13
0.72
0.7
0.34
0.95
0.35
0.64
0.42
0.71
0.09
0.942432
0.93658
0.0910354
0.178316
-0.874623
-0.133407
-0.0845708
0.479845
-0.288748
-0.369693
0.410825
0.626603
0.0228163
0.357561
0.836551
0.246065
0.319715
0.32042
0.532247
0.32
0.59
0.24
0.04
0.24
0.8
0.98
0.41
0.32
0.277724
0.109373
0.50355
0.34613
0.525637
2.18929
1.86114
0.907046
0.12547
-0.526271
-0.387212
0.234962
0.203067
1.28593
1.39192
0.695833
0.184228
0.773659
0.370499
0.703069
0.47
0.08
0.44
1
0.88
0.43
0.49
0.464305
0.832516
0.183534
-0.203898
1.01391
1.11233
0.964617
0.958712
0.787432
-0.269139
-0.806748
-0.989115
-1.0584
-1.13168
-0.441866
0.636226
0.162786
0.703265
0.312226
0.785726
0.702168
0.98
0.26
0.41
0.79
0.69
0.51
0.73
0.317431
0.871587
0.957189
0.362043
1.0549
0.744988
0.553115
0.226167
0.0270431
-0.970554
-1.39499
-1.4152
-1.03631
-1.085
-1.45308
-0.0473398
0.680386
0.60227
0.418655
0.599123
0.28159
0.34
0.24
0.8
0.86
0.81
0.83
0.14
0.513001
1.68339
1.26191
-0.00529775
0.827803
-0.659479
0.334261
-1.41613
-1.22132
-1.19085
-1.26786
0.393572
-0.592962
-0.251945
-1.17674
-0.402277
1.16282
0.483026
0.00806238
0.0961051
0.139099
0.55
0.61
0.63
0.27
0.27
0.11
0.0547171
0.0832221
1.58059
1.08782
-0.631607
-0.331408
-2.29932
-0.269652
-1.42029
-1.47316
-0.742424
-0.554109
1.16372
0.0721487
0.206642
0.976715
-0.350248
0.195426
0.601669
0.066083
0.509763
0.254671
0.51
0.31
0.69
0.46
0.55
0.37
0.526054
0.0259918
1.19082
0.382396
-1.4691
-1.26348
-1.9886
-0.19958
-0.591081
0.14139
0.569117
-0.820198
0.632649
0.362174
-0.00949396
1.23179
0.168234
0.529353
0.253043
0.47327
0.504315
0.527925
0.58
0.24
0.26
0.83
0.77
0.44
0.622528
0.112385
0.954045
0.472484
-0.879337
-0.765523
-0.912033
0.202465
-0.365327
0.383233
-0.270219
0.400188
-0.164366
1.30403
0.639567
0.973059
0.585613
-0.291562
0.273542
0.0341876
-0.017867
0.376157
0.885839
0.52
0.33
0.69
0.41
0.12
0.0525276
0.22955
0.323006
-1.09101
-1.1833
-0.500567
-0.570239
0.259993
0.0977958
0.399409
-0.15987
-0.493101
-0.792897
1.18228
1.54154
1.32783
0.105895
0.211483
0.202235
0.307511
0.847756
0.216157
0.459101
0.17
0.09
0.97
0.53
0.75942
0.15533
-0.607486
-1.40548
-1.00277
-0.998834
-0.0289842
1.33784
0.766411
0.697228
1.76354
0.872166
0.435273
-0.247565
0.659475
1.30003
-0.140066
0.189927
-1.22069
0.369283
0.192084
0.65202
0.556157
0.0461567
0.76
0.29
1
0.7
0.0660544
0.00151806
-0.388417
-1.5314
-0.560963
-1.06467
0.305307
0.793407
0.642333
1.12446
0.760638
0.701598
0.85314
0.487542
0.536445
0.912036
0.0411424
-0.235278
-1.31038
-0.220306
0.0107411
0.596148
0.586157
0.226157
0.07
0.14
0.6
0.06
0.0425276
0.784925
-0.0647199
-0.676512
-1.08662
-0.699485
-0.235528
0.988363
1.41984
1.52498
1.37607
0.579235
0.640309
0.619967
0.628266
0.343924
0.533116
-1.18714
-1.83163
-0.529684
-0.00680768
0.617811
0.0361567
0.438542
0.67
0.65
0.3
0.39942
0.872528
0.32412
-0.189461
-0.129423
-0.334352
-0.661021
-0.695386
-0.14332
0.42217
0.436246
0.849321
1.38881
1.20304
0.613348
0.919801
1.07274
1.10342
-0.46315
-0.957911
-0.922079
0.0307662
-0.128206
-0.0938326
0.0370559
0.78
0.24
0.15
0.23723
0.512528
0.0236548
0.172636
-0.721359
-0.357036
-0.453585
-0.299806
1.07843
1.16417
2.34911
2.8899
2.22912
2.03381
1.22905
1.11626
1.76026
1.3264
0.119633
-0.331363
-1.25263
0.127555
-0.111866
0.114458
0.610011
0.5
0.51
0
0.782366
0.152528
0.816892
0.541921
-0.472283
0.0403914
0.439505
0.725438
1.23601
2.26116
2.19663
2.35466
2.2116
1.39184
0.390435
-0.0125878
1.33773
1.01946
0.872447
0.898363
-1.04311
-0.0244711
-0.0732819
0.340028
0.560028
0
0.23
0.65
0.16
0.842366
0.496581
0.321921
0.144667
-0.00752025
0.0806712
0.859296
1.81993
2.54335
2.3021
2.65347
0.91376
0.484297
-0.317272
-0.633989
0.906477
1.63368
0.471556
1.03327
-0.928753
0.0816306
0.0826358
0.150028
0.660017
0.64
0.62
0.48
0.21
0.16
0.271636
-0.184949
0.0188189
-0.225379
0.614712
0.536333
2.02817
2.40194
3.33139
2.30601
0.78806
1.08814
-0.624467
-1.00241
0.999124
2.00658
1.4568
1.58811
-0.673306
0.635664
0.0515937
0.95
0.69
0.1
0.61
0.18
0.52
0.07
0.32811
-0.238306
-0.379864
-0.599122
-0.113883
0.15704
0.900193
1.05761
1.77135
0.871668
0.505837
0.155217
0.0200556
-0.839479
1.03801
1.63636
1.38674
0.585588
-1.46102
0.718637
0.0415941
0.110365
0.39
0.79
0.95
0.17
0.8
0.27
0.707215
0.138412
-0.643295
-0.243298
-0.428255
0.00656282
-0.284704
0.812796
0.626694
-0.00710882
-0.771565
-2.17118
-2.06033
-1.41683
0.342785
2.26448
2.16589
-0.873395
-1.66808
0.228004
0.351594
0.256564
0.43
0.36
0.4
0.77
0.98
0.27
0.405475
0.226461
-0.594443
-0.515119
-0.10862
-0.505611
-0.801824
0.0762798
0.469047
-0.512771
-0.0999594
-0.373643
-1.28405
-0.679175
0.420653
0.774803
1.49538
-0.546374
-1.24461
0.257744
-0.108406
0.311594
0.33
0.53
0.79
0.69
0.65
0.41
0.494645
0.738965
-0.0433787
0.453102
-0.252566
-0.690824
-0.350928
0.771041
0.52236
-0.120651
-0.850107
-0.710605
-0.152941
0.895545
1.05152
1.58787
0.389136
0.468607
-0.589974
-0.0730338
0.391594
0.051594
0.3
0.64
0.04
0.14
0.21
0.48
0.704808
0.238966
0.132472
0.777786
0.604722
-0.0422386
0.80524
0.608447
1.72753
2.28384
1.52053
1.72364
1.28912
0.964171
0.761236
0.574252
0.543953
-0.244683
-0.219028
-0.316411
0.791594
0.666199
0.36
0.56
0.37
0.68
0.67
0.79
0.03
0.24
0.595181
0.649524
-0.256677
-0.00798596
1.08691
0.821524
0.579226
0.738353
0.0676237
0.679534
1.02486
1.09622
1.73363
0.903978
0.745241
0.641188
0.372869
0.537333
0.52
0.01
0.3
0.54
0.01
0.87
0.6
0.22
0.3
0.14
0.738101
-0.067975
0.195855
0.398458
-0.0811572
0.548436
0.391443
0.0544537
0.124691
0.841034
0.664706
0.385602
0.990597
0.235457
0.659408
0.0134271
0.304123
0.520057
0.61
0.89
0.76
0.94
0.16
0.89
0.61
0.44
0.78
0.04
0.82
0.17
0.42
0.51
0.0949844
0.835113
0.535113
0.125113
0.201309
0.66919
0.740002
0.850004
0.0200021
0.69
0.45
0.99
0.52
0.12
0.51
0.38
0.14
0.32
0.61
0.1
0.8
0.66
0.4
0.94
0.51
0.27
0.79
0.79
0.725113
0.765113
-0.0548874
0.355113
0.616709
0.07
0.49
0.07
0.24
0.81
0.7
0.1
0.91
0.04
0.27
0.5
0.22
0.35
0.07
0.64
